{
    "weights": [
        [
            -0.36030863976787414,
            0.4571289719389993,
            0.003313518337692077,
            0.15902998116919204,
            -0.3710565085513407,
            -0.4129781548219531,
            0.1892901015538455,
            0.16344375504507502,
            -0.44232877246818736,
            -0.3582955287742743,
            0.5644271525921782,
            -0.3401689857360635,
            0.3080372478665767,
            0.38848093850548227,
            -0.1443803419539857,
            -0.257847523888917,
            -0.25300773004336985,
            -0.21781812691623187,
            0.4960901566972873,
            -0.23606763452292423,
            -0.0663259854843996,
            -0.13387941383578292,
            0.24940772679533996,
            0.11331004867911226,
            0.43866941914799895,
            0.14976467350368888,
            0.057272478147517895,
            0.1955165011429295,
            -0.38298053518524455,
            -0.35527556176606845,
            0.4747109880143695,
            0.4620377368429075,
            0.318523895246364,
            -0.45782183073575483,
            -0.22700747732267823,
            0.46604983046147186,
            -0.39321373600367293,
            0.47156687891906424,
            -0.2078541902015024,
            -0.4313644117899413,
            0.43180340840917864,
            -0.22721200601403882,
            0.5062357435400943,
            0.4738066860541591,
            -0.3755306057949103,
            0.27875598284848135,
            -0.3379502926164265,
            0.1473700548789755,
            0.39179490587623705,
            -0.4085235727142702,
            -0.21822641961848604,
            0.09920558402005783,
            -0.29024195056986557,
            -0.1312441383510142,
            -0.04067078000824405,
            -0.2096633541529112,
            0.4724033981721138,
            0.12697724477116604,
            -0.3375114515785199,
            0.5324551551508329,
            0.038325978962542875,
            -0.433548404930841,
            0.3380581142880009,
            0.5595571802657953,
            0.1735653998146768,
            -0.1345920266251013,
            0.5115273428208903,
            -0.25316213489331507,
            0.10662577933380667,
            0.09452640399478995,
            0.34932782981425686,
            -0.12291083305506555,
            0.2704145157132003,
            -0.4697349272952211,
            0.4048498951646433,
            -0.47606870450959293,
            -0.05385855308216893,
            -0.33014809599952855,
            -0.13131915161982866,
            0.46156801131071334,
            -0.35886824951952523,
            0.19144523664822957,
            -0.33962014639059257,
            -0.13441869566092407,
            0.17939103019747624,
            -0.02579681908950956,
            0.41091808188156714,
            -0.20049231844126494,
            0.3241544594848331,
            -0.4784842733230417,
            0.09988642752987448,
            -0.23755513654186605,
            -0.0026475589255248594,
            -0.34137963611981803,
            0.4766582747898137,
            -0.06977422675679859,
            -0.010524247664044951,
            -0.3206377172796655,
            0.13550875725658065,
            -0.10378358218562311,
            0.05852885728188074,
            0.15746844127279647,
            -0.3172859969173941,
            0.2615121276651344,
            0.40878833099057726,
            0.09330725892997409,
            0.42986132086093054,
            -0.41315322138297855,
            0.35847273292649245,
            -0.5040364936504667,
            0.29404682007381244,
            0.43249715090768726,
            0.12461640454611876,
            -0.046803943035911996,
            0.13144247626809974,
            0.5083132806982699,
            0.3295203912570171,
            0.18434662276873529,
            -0.4568472706825961,
            -0.03592150439547812,
            -0.1938649582245452,
            -0.28898997502817486,
            -0.3403590592753579,
            0.39601352261157435,
            0.26543818545580394,
            0.008806627898109175,
            0.03187810861002353,
            0.2839044537868862,
            0.3785421791371204,
            -0.03547712669103105,
            -0.4767928118627227,
            0.3716181151864446,
            -0.30054028635144503,
            0.07770774365412289,
            -0.23447074093211254,
            0.20297982038995896,
            0.04127811697009498,
            -0.11042308367733372,
            0.051487155720412944,
            -0.19996224867424248,
            0.2205385868665467,
            0.3162787605655424,
            -0.169850311528291,
            0.3259657261654574,
            0.31172467063747933,
            -0.48791679015070843,
            0.03480142521009717,
            -0.1160816736526433,
            -0.2765391934501512,
            -0.33888160458354244,
            0.17815065391817184,
            -0.29811056743943193,
            0.4241636280198152,
            0.05221427537580742,
            -0.4281857984308969,
            0.3597864642751766,
            0.1292747983764404,
            0.498168539529559,
            -0.08474599300716365,
            -0.4645193304082275,
            0.10755374413513874,
            -0.3369976416375315,
            -0.42685303425442384,
            -0.13250169875808102,
            -0.3442653900668333,
            -0.29925896062366003,
            -0.4202525405595007,
            -0.396287711002813,
            -0.3929648796913267,
            0.2318077709443714,
            -0.18070167560659367,
            0.24087739022878396,
            -0.26070398555689756,
            -0.16170599341426906,
            0.2523969382744087,
            0.24263168690623915,
            0.35883863004714406,
            0.19364100080935467,
            -0.13310509515993038,
            -0.2548989300013231,
            0.2060425179448384,
            -0.42245907745043443,
            -0.2878429067262737,
            0.2689997491832584,
            -0.1657013824949119,
            0.20167966981657956,
            0.1889304471271166,
            -0.2562349023287315,
            -0.05565387040281708,
            0.11477000436086271,
            -0.3232221683959544,
            -0.3035133788834923,
            0.32698316556922163,
            0.07524703588595152,
            0.30303721950906476,
            0.004694150260419097,
            0.4032932970038938,
            -0.26142711423017684,
            -0.19517681081939092,
            0.29718628515626233,
            -0.1493002510934302,
            -0.1619799274639571,
            0.2564483571516893,
            0.4893625836742655,
            -0.0879866446560269,
            0.23473980597423422,
            0.03593601510187521,
            0.07185026581252905,
            -0.07140975697032367,
            -0.22968450868645993,
            0.3369201239657711,
            0.3525052663098068,
            -0.2786318003379273,
            0.20684717637489605,
            -0.07338847634671224,
            -0.06480587744724686,
            -0.3286535798907507,
            -0.36498712099374364,
            -0.17312313607403387,
            0.43103489013914287,
            0.0948784915476121,
            0.2924350656764942,
            -0.264090367446271,
            -0.11549552018841193,
            0.19555404791761058,
            0.46517405067266254,
            0.3366734754677196,
            -0.3895897361584747,
            0.4670872572930702,
            0.01852586889910688,
            0.12487929155853217,
            -0.47112406407727936,
            0.16848727132169167,
            0.39345740499540355,
            -0.32819883918189474,
            -0.4241920539406118,
            -0.02646273027626446,
            -0.011675635114476737,
            0.2122212745050318,
            0.41317738421390987,
            0.39765097586785114,
            -0.45689141601237016,
            -0.28965760869856066,
            -0.17147295734231816,
            -0.3161449358226487,
            0.2512850357647114,
            -0.41314484535247414,
            0.3266141185946072,
            -0.2768097868568299,
            -0.08558458877550051,
            -0.09102732975732084,
            -0.13917449747180838,
            -0.009790400126813675,
            0.3886981722904389,
            0.22508097170529448,
            -0.19815083518261517,
            0.3633166469272905,
            0.09282701790601584,
            -0.43445097632109014,
            0.12387096577433357,
            -0.03714514794042103,
            -0.46108582927052644,
            -0.26886970715897013,
            0.33797864466850475,
            -0.06870838818806838,
            -0.11234283658534638,
            -0.34092229830134535,
            0.4523358388673376,
            -0.05040511213513904,
            -0.5048038968760178,
            0.35010716662623537,
            -0.5190457255729444,
            -0.4659795546248765,
            0.4353634748840401,
            -0.4828957746554168,
            -0.11883200059939489,
            -0.2565190746681018,
            0.15361349284879108,
            0.2590190970951611,
            -0.3373720389154618,
            -0.3387623982433068,
            0.17591083721111608,
            0.23907090203334408,
            0.4326201315488707,
            -0.3921201953872923,
            0.07018016737454844,
            0.40126500154574835,
            0.48480809465957914,
            -0.44901855938211227,
            -0.03249865587500048,
            0.1435605134693634,
            0.4836730083600235,
            0.06489263695834493,
            -0.10301570729144477,
            0.20173978900293255,
            -0.35559944810397626,
            0.38081702404136203,
            0.510708974574731,
            0.34308087987694574,
            0.10760286556244023
        ],
        [
            0.19652555223526982,
            -0.18860363075993075,
            0.4282158305834827,
            0.37848992116144625,
            -0.4578449172091515,
            -0.03931259568579716,
            -0.17297232349844782,
            0.2951155487118744,
            -0.4031223540704838,
            0.02333253511044197,
            0.17608897442014676,
            0.4837744176613397,
            -0.29572110881391994,
            0.22858467974521285,
            -0.04932187133063308,
            0.2976981363229729,
            0.002294564942274424,
            -0.30012712278798565,
            0.163314594569975,
            -0.12489125972969052,
            0.26213593957789305,
            0.16950802155215736,
            0.1252272373371223,
            -0.04179082483982248,
            -0.16859345957976257,
            0.38173933143211264,
            0.233595795457879,
            0.2347617026118105,
            -0.2685047704933763,
            -0.3902721507319167,
            0.44320333260848777,
            0.38308380449654056,
            0.18169693327755326,
            0.1883402288387724,
            -0.027312461630145557,
            -0.4273533094471156,
            -0.1521832045098789,
            0.30478430267868506,
            -0.0110817897423773,
            0.3428738637216437,
            0.3651297590115913,
            0.41674769050770977,
            0.29755415500186416,
            -0.33480178752466694,
            -0.4203780000374345,
            -0.3578443154803337,
            -0.42638747800067117,
            -0.4954219862654834,
            0.1527632547642453,
            -0.216082845984655,
            -0.219783980742587,
            -0.23986355126032394,
            0.05334423559210551,
            -0.06338288792651661,
            -0.37178669509989964,
            -0.15995712915513488,
            -0.06879506232246563,
            0.3463960897034157,
            -0.3714362748256862,
            0.29264934511727153,
            -0.12044382332047932,
            -0.2785405564670279,
            0.029675102682623758,
            -0.4313829268064096,
            -0.12788354838765914,
            -0.3883246210207953,
            -0.5190103203320563,
            -0.14020974564519953,
            0.06349525583784711,
            0.3998087143274802,
            -0.09894004398367413,
            -0.11218009309367241,
            -0.07573535961644359,
            0.13415304286945023,
            -0.2534468211764505,
            -0.18748528384837293,
            0.48922844829491097,
            -0.13669555892494203,
            -0.3330083686380655,
            0.44996680878150075,
            0.4511351404667614,
            0.09141129356749264,
            -0.09567957576929043,
            -0.4636447518465538,
            -0.3204236564777589,
            -0.46640511204083274,
            0.31271080288353786,
            -0.31332823133468585,
            -0.2611404192668919,
            -0.06067265145976758,
            0.20741659762172154,
            0.06098079561117413,
            0.16590217693823575,
            -0.36313924289064403,
            0.2619758331582058,
            0.553509235537589,
            0.04127498135486056,
            -0.45333452508512084,
            0.0803654012470861,
            -0.3547143820288754,
            -0.1251575826857918,
            -0.12066334672964463,
            0.2658189050983931,
            0.3484723110833469,
            0.20178972146514557,
            -0.043543130955806135,
            0.2673864575157051,
            -0.02226095409525837,
            0.403400541540295,
            -0.3612957044871441,
            -0.23377698131350533,
            -0.010060736801283644,
            -0.0408794320855844,
            0.3722884166223473,
            0.10086811777413991,
            -0.2238060666609526,
            0.40357435555504634,
            -0.21401670090393535,
            -0.24970829000422032,
            0.07590767473543655,
            -0.4862771661601245,
            0.02741511559436454,
            0.16236561663740037,
            -0.5400279306452369,
            0.09478291845749036,
            0.2417449872142475,
            0.31638046649255364,
            -0.4463057442055487,
            -0.4020299237120125,
            0.13294441854370692,
            -0.2139242631094538,
            -0.05561556519260771,
            -0.24912409762765877,
            0.2399085344345472,
            -0.4111565681056687,
            0.31843187563349684,
            -0.3256370682794436,
            0.26612420248412844,
            -0.24956955078598486,
            0.42959333975175756,
            -0.4429444326067148,
            -0.462289105617544,
            -0.3271100700120225,
            0.3763793314132533,
            -0.056073452282703454,
            -0.24567513536398689,
            -0.05481091964512538,
            0.12474472450487528,
            0.49321643114237246,
            -0.26351880553400564,
            0.5065819406203005,
            0.35230499273420085,
            0.47529404679297405,
            -0.2345048168895842,
            0.22016786221960472,
            0.045147990053192165,
            -0.012924606312624168,
            -0.5056664013217511,
            0.1485224716221661,
            -0.1505703245949868,
            0.13076388284306495,
            -0.02325334053329161,
            0.406277785947802,
            0.03146378346600452,
            -0.2647518533439661,
            -0.2915902156422517,
            0.5427102397368826,
            -0.5041406035894188,
            -0.18715843253144002,
            -0.020190914000762297,
            0.10495408975476662,
            -0.15945825581945117,
            0.21732285394376935,
            -0.05273373240263813,
            -0.13651423521918493,
            0.43450521561271127,
            -0.3658682192307277,
            -0.43246095078914765,
            -0.5345147502701604,
            0.1001359066832102,
            0.15672189527092828,
            -0.506742080824532,
            -0.039527380732663646,
            -0.16770549276217694,
            0.15196069487917246,
            0.4009133914454658,
            -0.4108284737141841,
            0.1525981306196573,
            0.4181185207208194,
            0.15359208004074898,
            0.34903207303224937,
            0.4739448543595518,
            -0.458962003704894,
            -0.23925675734186108,
            0.36019820712583844,
            0.14077851136373373,
            -0.4276378965701163,
            0.25784126657738504,
            0.11652008654249384,
            -0.4462272140693432,
            -0.37949038766527826,
            -0.041800252255645966,
            0.33186618105971377,
            -0.467384647133321,
            -0.40985930221498446,
            0.390734808056654,
            -0.45491887790892266,
            -0.0370970650778337,
            0.3474505149693349,
            -0.26745479837876607,
            0.0748264103559153,
            -0.40074617914471394,
            -0.38867239966418066,
            -0.11132522692190798,
            0.3577178227205218,
            -0.1651114116114385,
            0.3686901228364743,
            0.3113286672805313,
            0.2924666497611254,
            0.17912509437185187,
            -0.3684855952174716,
            0.4761336490571573,
            0.19862890594677632,
            0.44314636286040976,
            -0.14268540514656472,
            0.1566897575879517,
            -0.1695011291474618,
            0.21932233616330743,
            -0.002735927887705946,
            -0.362202124461687,
            0.14040646022826708,
            -0.3686054413554368,
            -0.34657772387172897,
            -0.333805704073926,
            -0.008872781491562017,
            -0.4283340819767106,
            0.016810852823963336,
            -0.2299903690783151,
            0.301672954283593,
            -0.2683397885096039,
            -0.4229311726283612,
            0.2662251019408949,
            -0.31510155574674686,
            -0.2319050867707131,
            0.40872648669415323,
            0.15479666415051074,
            0.47117942528892837,
            -0.3494577964251855,
            -0.4425577186462556,
            0.20621333707359862,
            0.35575094519355976,
            0.26628612709302896,
            0.23471247050023825,
            0.256080869686232,
            -0.1252332863826878,
            0.025843296953905134,
            -0.4865312961372976,
            -0.48188904032149055,
            0.1602922165158009,
            0.30155141499848226,
            0.060101989049023564,
            0.05545320708468619,
            0.35917294352778545,
            0.31373414938058125,
            -0.4345644885322324,
            0.45783510458239396,
            -0.502960459739234,
            -0.23608795056662918,
            0.041030553028030776,
            0.3676330256131055,
            -0.22839984189796841,
            -0.14955922613759376,
            -0.5197231676018814,
            0.22718231682507334,
            0.12950535059248458,
            0.4923697363916847,
            -0.2164532548422619,
            -0.3054812051885819,
            -0.1147188005692376,
            0.08504329282287008,
            -0.420053185568644,
            0.0919091221668819,
            0.15871137501320104,
            -0.2831202741019668,
            -0.3352371461709777,
            0.010029616264080408,
            0.3266713562252495,
            0.21086551354535715,
            0.06873596726322445,
            0.024112741297829848,
            0.10384757913745887,
            0.193013197493423,
            -0.2384611398886152,
            -0.08642678101914053,
            -0.14436586421043884,
            0.4888593485691113,
            0.07213179509568353,
            -0.32882517640263104,
            0.36977244148716465,
            -0.17329103264768272
        ]
    ],
    "biases": [
        -0.4542450398681598,
        -0.11235075545304746
    ]
}